[[{"weights":[-5.625832879724036,-6.0705303258719585],"bias":11.952252001540433},{"weights":[-4.757626102896425,-5.284771246587088],"bias":10.536864728669666},{"weights":[-2.8332193322861987,-2.075641429074595],"bias":6.870938796899879},{"weights":[5.006259034714296,5.425851952981409],"bias":-10.863725585533023},{"weights":[6.940062022671521,7.36067013131264],"bias":-14.299398498169936},{"weights":[3.91949971694478,2.629503416396761],"bias":-8.13015648713831},{"weights":[-4.276427128582857,-4.745749119763102],"bias":9.70118448212716},{"weights":[-6.798578007859836,-7.218571040980373],"bias":14.038017863517272},{"weights":[-2.548413933653168,-2.0239208362099004],"bias":6.610523242636575},{"weights":[4.56898984920776,2.964358756515806],"bias":-8.96732728064042}],[{"weights":[0.8354968940328895,1.6332512912761454,0.007739924024411601,-2.042837964045357,-0.7188956083188722,-0.19604955710248845,1.0606036220603225,1.7394994280632903,-0.2896362296364496,-1.2691398450395963],"bias":-0.24796802299716544},{"weights":[-1.3820724871629673,-1.830199664066541,-0.12466353166269638,2.0299925308577,2.786705313491893,1.2795606365747911,-0.7893244160123274,-1.1304725358625696,0.09288896565357166,0.2823865823832107],"bias":-0.2133022832390511},{"weights":[1.1148114513753022,1.8213924312695313,-0.2459583180553213,-1.3333314909131926,-3.5286412133871714,-1.094559522155079,1.4407534569232028,2.883026399576767,0.4409282119462036,-1.285379981675903],"bias":-1.112168852106134},{"weights":[0.5718575668328811,-0.31311614970102025,0.9606541715144563,-1.4783874437311106,-0.5031010249186973,-0.006060924206553409,0.6552797678999468,1.6614313326370678,0.09860781293146235,-1.2461981399474171],"bias":0.3401863035008801},{"weights":[1.491702448007325,0.6481623005181614,-0.06459388028520056,-1.4637427193376804,-0.8752637127245383,-0.634108318263996,1.2429551827930017,0.23188144968956134,1.0685247211052427,-0.8500555636013433],"bias":-0.12229537347550518},{"weights":[-2.0672338785448345,-0.6859562597902573,-1.1378229218148512,1.1733352453780888,1.1672619718912332,0.9830442868274419,-0.3984776258672619,-1.5632067246238073,0.18564080863564705,1.1569296932710351],"bias":0.8176568379333161},{"weights":[-1.4395876429605805,-0.34622972581366757,-0.6231328448273417,1.7705866821272753,2.958718993637519,0.9222164034943175,-0.6856164634269819,-2.555498691894394,-0.8367999731934361,1.2313817423696505],"bias":0.7765530893163242},{"weights":[-0.16315777990323874,1.0989440177973158,1.0918043114880678,-1.929530517137997,-2.191107220835939,-0.24163034699803465,0.5851167332629038,1.2915011152189146,0.532470356074162,-1.1703439712574044],"bias":0.3489308587162358},{"weights":[2.556854137222605,0.6873546731989247,0.008882575688894046,-0.8951303053960651,-3.166194984400558,-0.49225184522859,1.003224710334692,2.95018121009997,0.15361262621887722,-0.31286128898545584],"bias":-1.5065923326822799},{"weights":[-1.9208892585274864,-1.3429942360808267,-0.7758204270221346,1.600171123310443,2.241491353510655,1.2507798467982203,-1.0639012873175668,-2.1854556881883274,-0.28751690430386606,1.8581253211483888],"bias":1.6550304667719211}],[{"weights":[-0.7526504101469748,1.23392845617543,-2.42305120295351,-0.3291626183051995,-0.48625076612997276,0.9121547834149799,1.6847861316016695,-0.8463606558613803,-1.917595682948522,2.002015557745171],"bias":0.837902800078722}]]